digraph Tree {
node [shape=box, style="filled, rounded", color="black", fontname="helvetica"] ;
edge [fontname="helvetica"] ;
0 [label="Sex_male <= 0.5\ngini = 0.46\nsamples = 623\nvalue = [396, 227]\nclass = die", fillcolor="#f4c9aa"] ;
1 [label="Pclass_3 <= 0.5\ngini = 0.39\nsamples = 217\nvalue = [57, 160]\nclass = survived", fillcolor="#80c0ee"] ;
0 -> 1 [labeldistance=2.5, labelangle=45, headlabel="True"] ;
2 [label="Age <= 2.5\ngini = 0.1\nsamples = 117\nvalue = [6, 111]\nclass = survived", fillcolor="#44a2e6"] ;
1 -> 2 ;
3 [label="Pclass_2 <= 0.5\ngini = 0.5\nsamples = 2\nvalue = [1, 1]\nclass = die", fillcolor="#ffffff"] ;
2 -> 3 ;
4 [label="gini = 0.0\nsamples = 1\nvalue = [1, 0]\nclass = die", fillcolor="#e58139"] ;
3 -> 4 ;
5 [label="gini = 0.0\nsamples = 1\nvalue = [0, 1]\nclass = survived", fillcolor="#399de5"] ;
3 -> 5 ;
6 [label="Fare <= 28.86\ngini = 0.08\nsamples = 115\nvalue = [5, 110]\nclass = survived", fillcolor="#42a1e6"] ;
2 -> 6 ;
7 [label="Fare <= 28.23\ngini = 0.21\nsamples = 43\nvalue = [5, 38]\nclass = survived", fillcolor="#53aae8"] ;
6 -> 7 ;
8 [label="gini = 0.17\nsamples = 42\nvalue = [4, 38]\nclass = survived", fillcolor="#4ea7e8"] ;
7 -> 8 ;
9 [label="gini = 0.0\nsamples = 1\nvalue = [1, 0]\nclass = die", fillcolor="#e58139"] ;
7 -> 9 ;
10 [label="gini = 0.0\nsamples = 72\nvalue = [0, 72]\nclass = survived", fillcolor="#399de5"] ;
6 -> 10 ;
11 [label="Embarked_S <= 0.5\ngini = 0.5\nsamples = 100\nvalue = [51, 49]\nclass = die", fillcolor="#fefaf7"] ;
1 -> 11 ;
12 [label="Age <= 29.25\ngini = 0.38\nsamples = 36\nvalue = [9, 27]\nclass = survived", fillcolor="#7bbeee"] ;
11 -> 12 ;
13 [label="Fare <= 15.37\ngini = 0.3\nsamples = 33\nvalue = [6, 27]\nclass = survived", fillcolor="#65b3eb"] ;
12 -> 13 ;
14 [label="gini = 0.38\nsamples = 24\nvalue = [6, 18]\nclass = survived", fillcolor="#7bbeee"] ;
13 -> 14 ;
15 [label="gini = 0.0\nsamples = 9\nvalue = [0, 9]\nclass = survived", fillcolor="#399de5"] ;
13 -> 15 ;
16 [label="gini = 0.0\nsamples = 3\nvalue = [3, 0]\nclass = die", fillcolor="#e58139"] ;
12 -> 16 ;
17 [label="Fare <= 20.8\ngini = 0.45\nsamples = 64\nvalue = [42, 22]\nclass = die", fillcolor="#f3c3a1"] ;
11 -> 17 ;
18 [label="Age <= 19.5\ngini = 0.5\nsamples = 43\nvalue = [23, 20]\nclass = die", fillcolor="#fcefe5"] ;
17 -> 18 ;
19 [label="gini = 0.4\nsamples = 11\nvalue = [3, 8]\nclass = survived", fillcolor="#83c2ef"] ;
18 -> 19 ;
20 [label="gini = 0.47\nsamples = 32\nvalue = [20, 12]\nclass = die", fillcolor="#f5cdb0"] ;
18 -> 20 ;
21 [label="SibSp <= 1.5\ngini = 0.17\nsamples = 21\nvalue = [19, 2]\nclass = die", fillcolor="#e88e4e"] ;
17 -> 21 ;
22 [label="gini = 0.38\nsamples = 8\nvalue = [6, 2]\nclass = die", fillcolor="#eeab7b"] ;
21 -> 22 ;
23 [label="gini = 0.0\nsamples = 13\nvalue = [13, 0]\nclass = die", fillcolor="#e58139"] ;
21 -> 23 ;
24 [label="Age <= 11.5\ngini = 0.28\nsamples = 406\nvalue = [339, 67]\nclass = die", fillcolor="#ea9a60"] ;
0 -> 24 [labeldistance=2.5, labelangle=-45, headlabel="False"] ;
25 [label="SibSp <= 2.5\ngini = 0.46\nsamples = 25\nvalue = [9, 16]\nclass = survived", fillcolor="#a8d4f4"] ;
24 -> 25 ;
26 [label="gini = 0.0\nsamples = 15\nvalue = [0, 15]\nclass = survived", fillcolor="#399de5"] ;
25 -> 26 ;
27 [label="Parch <= 1.5\ngini = 0.18\nsamples = 10\nvalue = [9, 1]\nclass = die", fillcolor="#e88f4f"] ;
25 -> 27 ;
28 [label="gini = 0.0\nsamples = 6\nvalue = [6, 0]\nclass = die", fillcolor="#e58139"] ;
27 -> 28 ;
29 [label="Age <= 3.5\ngini = 0.38\nsamples = 4\nvalue = [3, 1]\nclass = die", fillcolor="#eeab7b"] ;
27 -> 29 ;
30 [label="gini = 0.0\nsamples = 1\nvalue = [0, 1]\nclass = survived", fillcolor="#399de5"] ;
29 -> 30 ;
31 [label="gini = 0.0\nsamples = 3\nvalue = [3, 0]\nclass = die", fillcolor="#e58139"] ;
29 -> 31 ;
32 [label="Fare <= 26.14\ngini = 0.23\nsamples = 381\nvalue = [330, 51]\nclass = die", fillcolor="#e99458"] ;
24 -> 32 ;
33 [label="Fare <= 15.37\ngini = 0.16\nsamples = 292\nvalue = [266, 26]\nclass = die", fillcolor="#e88d4c"] ;
32 -> 33 ;
34 [label="Fare <= 15.17\ngini = 0.18\nsamples = 253\nvalue = [227, 26]\nclass = die", fillcolor="#e88f50"] ;
33 -> 34 ;
35 [label="gini = 0.18\nsamples = 252\nvalue = [227, 25]\nclass = die", fillcolor="#e88f4f"] ;
34 -> 35 ;
36 [label="gini = 0.0\nsamples = 1\nvalue = [0, 1]\nclass = survived", fillcolor="#399de5"] ;
34 -> 36 ;
37 [label="gini = 0.0\nsamples = 39\nvalue = [39, 0]\nclass = die", fillcolor="#e58139"] ;
33 -> 37 ;
38 [label="Fare <= 26.47\ngini = 0.4\nsamples = 89\nvalue = [64, 25]\nclass = die", fillcolor="#efb286"] ;
32 -> 38 ;
39 [label="gini = 0.0\nsamples = 3\nvalue = [0, 3]\nclass = survived", fillcolor="#399de5"] ;
38 -> 39 ;
40 [label="Age <= 30.0\ngini = 0.38\nsamples = 86\nvalue = [64, 22]\nclass = die", fillcolor="#eeac7d"] ;
38 -> 40 ;
41 [label="gini = 0.23\nsamples = 37\nvalue = [32, 5]\nclass = die", fillcolor="#e99558"] ;
40 -> 41 ;
42 [label="gini = 0.45\nsamples = 49\nvalue = [32, 17]\nclass = die", fillcolor="#f3c4a2"] ;
40 -> 42 ;
}